%YAML:1.0
mlp: !!opencv-ml-ann-mlp
   layer_sizes: !!opencv-matrix
      rows: 1
      cols: 3
      dt: i
      data: [ 9, 15, 2 ]
   activation_function: GAUSSIAN
   f_param1: 1.
   f_param2: 1.
   min_val: 5.0000000000000003e-02
   max_val: 1.
   min_val1: 2.0000000000000000e-02
   max_val1: 1.
   training_params:
      train_method: BACKPROP
      dw_scale: 1.0000000000000001e-01
      moment_scale: 1.0000000000000001e-01
      term_criteria: { epsilon:9.9999999747524271e-07, iterations:1000 }
   input_scale: [ 1, 1,
       1, 1,
       1, 1,
       1, 1,
       1, 1,
       1, 1,
       1, 1,
       1, 1,
       1, 1 ]
   output_scale: [ 1, 1,
       1, 1 ]
   inv_output_scale: [ 1, 1,
       1, 1 ]
   weights:
      - [ 5.67437935e+00, -3.67881012e+01, 3.20154381e+01,
        -2.07482643e+01, -3.92843170e+01, 3.48448219e+01, -4.88412971e+01,
        3.29160957e+01, 3.87736549e+01, -1.96258526e+01, 5.64008188e+00,
        -4.73781471e+01, -4.19319992e+01, -3.20835457e+01, 1.02645073e+01,
        -8.93133736e+00, 4.85799866e+01, -3.61757851e+01, 2.88987541e+01,
        5.28492889e+01, -4.26584091e+01, 5.83303909e+01, -4.62410011e+01,
        -4.49934883e+01, 2.23630333e+01, -4.25136900e+00, 5.85757904e+01,
        5.02856750e+01, 3.51009979e+01, -1.63891716e+01, -3.63212228e+00,
        -9.59337330e+00, 6.14577770e+00, -6.69605196e-01, -1.04617748e+01,
        7.51681042e+00, -1.10264177e+01, 4.71228570e-01, 7.68333387e+00,
        4.69994336e-01, 1.21840882e+00, -1.27776909e+01, -1.34287720e+01,
        -9.06491399e-01, -3.88549662e+00, -1.31035590e+00,
        -8.46943974e-01, 2.52072954e+00, -5.48532128e-01, -1.78233147e+00,
        2.06271625e+00, -1.18514347e+00, 1.77787054e+00, 1.01970780e+00,
        4.27872926e-01, -3.03905994e-01, -1.13344991e+00, 7.97780871e-01,
        -2.39107990e+00, -2.10073113e+00, -2.60107249e-01,
        -2.61170506e-01, 1.66771519e+00, 2.17160010e+00, 2.35515618e+00,
        -8.44609141e-01, 1.93094563e+00, 5.07384539e-01, -1.90738654e+00,
        1.74330044e+00, 1.80379617e+00, 2.14779568e+00, 8.32492542e+00,
        3.43655634e+00, -4.22242212e+00, 5.93010783e-01, -1.00074816e+01,
        1.15885067e+01, -8.99941063e+00, -6.57746077e+00, 8.28538418e+00,
        -4.93128633e+00, 6.27653170e+00, 2.41983414e+00, -7.09880304e+00,
        2.65039730e+00, -3.57825780e+00, -5.88931894e+00, -7.15674400e+00,
        -8.63750160e-01, -4.22843790e+00, -3.01564574e+00,
        -1.27385540e+01, 1.46382701e+00, -4.03313923e+00, -3.98394674e-01,
        -5.62857211e-01, 4.76092386e+00, 1.00212944e+00, 2.15244532e+00,
        2.03277540e+00, -1.69682419e+00, -3.56867766e+00, 3.28600669e+00,
        -6.29102516e+00, 3.30565780e-01, -2.78995609e+00, 1.94108944e+01,
        -1.38237076e+01, -1.04453735e+01, 1.69332829e+01, -1.68141580e+00,
        6.90513420e+00, 1.17378874e+01, -1.43033495e+01, 5.61215162e+00,
        -2.23996162e+00, -9.41481876e+00, -1.72845325e+01, 3.58654571e+00,
        -5.02819681e+00, 8.61708820e-01, -7.28326416e+00, 3.55448771e+00,
        -9.57242107e+00, -3.92108172e-01, -4.64888477e+00, 1.07749748e+00,
        4.13215446e+00, 5.99760890e-01, 2.37678647e+00, -8.33932686e+00,
        -1.25145569e+01, -4.75870579e-01, -3.90089607e+00,
        -8.14982891e+00, -5.76541281e+00, 5.39055824e+00, -7.54436636e+00,
        7.92738870e-02, 2.06032467e+00, -9.10125923e+00, -5.71030045e+00,
        1.98586571e+00, -4.23623991e+00, 5.64376783e+00, -6.36578131e+00,
        5.90300131e+00, -4.32386160e+00, -8.04932022e+00 ]
      - [ -7.05546427e+00, 7.07394981e+00, 1.58773041e+01,
        -1.58772984e+01, -1.18507729e+01, 1.18507595e+01, 1.69658260e+01,
        -1.69658356e+01, 1.33205242e+01, -1.33205233e+01, -1.04882307e+01,
        1.04880133e+01, 1.19405460e+01, -1.19405460e+01, -1.42886868e+01,
        1.42886858e+01, -1.59086981e+01, 1.59086962e+01, 1.68464661e+01,
        -1.68464966e+01, 2.17499294e+01, -2.16321411e+01, 1.17466583e+01,
        -1.17466564e+01, 1.36938028e+01, -1.36938038e+01, 1.81608486e+01,
        -1.81608391e+01, -9.19872952e+00, 9.19918633e+00, 2.77846107e+01,
        -2.79021626e+01 ]
        
